<?xml version="1.0"?>
<opencv_storage>
<stage6>
  <maxWeakCount>10</maxWeakCount>
  <stageThreshold>-8.2158261537551880e-01</stageThreshold>
  <weakClassifiers>
    <_>
      <internalNodes>
        0 -1 56152 9.3789026141166687e-03</internalNodes>
      <leafValues>
        -4.2914173007011414e-01 6.2740570306777954e-01</leafValues></_>
    <_>
      <internalNodes>
        0 -1 12610 1.4326607342809439e-03</internalNodes>
      <leafValues>
        -4.2737069725990295e-01 5.0675117969512939e-01</leafValues></_>
    <_>
      <internalNodes>
        0 -1 74682 1.2421868450473994e-04</internalNodes>
      <leafValues>
        -6.5719658136367798e-01 2.8286787867546082e-01</leafValues></_>
    <_>
      <internalNodes>
        0 -1 43736 -5.8019004762172699e-02</internalNodes>
      <leafValues>
        4.8896366357803345e-01 -4.2735731601715088e-01</leafValues></_>
    <_>
      <internalNodes>
        0 -1 24228 2.7434676885604858e-02</internalNodes>
      <leafValues>
        -6.7410129308700562e-01 2.6879569888114929e-01</leafValues></_>
    <_>
      <internalNodes>
        0 -1 24962 1.9330857321619987e-03</internalNodes>
      <leafValues>
        -4.6150246262550354e-01 3.1966891884803772e-01</leafValues></_>
    <_>
      <internalNodes>
        0 -1 53091 5.0795627757906914e-03</internalNodes>
      <leafValues>
        -4.8983901739120483e-01 3.5148611664772034e-01</leafValues></_>
    <_>
      <internalNodes>
        0 -1 76162 -3.0319602228701115e-03</internalNodes>
      <leafValues>
        1.6596366465091705e-01 -8.4266400337219238e-01</leafValues></_>
    <_>
      <internalNodes>
        0 -1 74994 -9.7946887835860252e-03</internalNodes>
      <leafValues>
        6.5754431486129761e-01 -2.3513373732566833e-01</leafValues></_>
    <_>
      <internalNodes>
        0 -1 48927 -7.0328013971447945e-03</internalNodes>
      <leafValues>
        2.0361579954624176e-01 -7.9911625385284424e-01</leafValues></_></weakClassifiers></stage6>
</opencv_storage>
