<?xml version="1.0"?>
<opencv_storage>
<cascade>
  <stageType>BOOST</stageType>
  <featureType>HAAR</featureType>
  <height>20</height>
  <width>20</width>
  <stageParams>
    <boostType>GAB</boostType>
    <minHitRate>9.9500000476837158e-01</minHitRate>
    <maxFalseAlarm>5.0000000000000000e-01</maxFalseAlarm>
    <weightTrimRate>9.4999999999999996e-01</weightTrimRate>
    <maxDepth>1</maxDepth>
    <maxWeakCount>100</maxWeakCount></stageParams>
  <featureParams>
    <maxCatCount>0</maxCatCount>
    <featSize>1</featSize>
    <mode>BASIC</mode></featureParams>
  <stageNum>8</stageNum>
  <stages>
    <!-- stage 0 -->
    <_>
      <maxWeakCount>3</maxWeakCount>
      <stageThreshold>-7.4623423814773560e-01</stageThreshold>
      <weakClassifiers>
        <_>
          <internalNodes>
            0 -1 32 -1.4649550430476665e-03</internalNodes>
          <leafValues>
            8.8455283641815186e-01 -8.5614037513732910e-01</leafValues></_>
        <_>
          <internalNodes>
            0 -1 15 7.1187010034918785e-03</internalNodes>
          <leafValues>
            -6.8438142538070679e-01 8.3845549821853638e-01</leafValues></_>
        <_>
          <internalNodes>
            0 -1 19 -3.0839335173368454e-02</internalNodes>
          <leafValues>
            7.9428756237030029e-01 -6.6712844371795654e-01</leafValues></_></weakClassifiers></_>
    <!-- stage 1 -->
    <_>
      <maxWeakCount>3</maxWeakCount>
      <stageThreshold>-5.2823853492736816e-01</stageThreshold>
      <weakClassifiers>
        <_>
          <internalNodes>
            0 -1 45 -1.0343212634325027e-02</internalNodes>
          <leafValues>
            8.2608693838119507e-01 -7.0051634311676025e-01</leafValues></_>
        <_>
          <internalNodes>
            0 -1 22 1.0754692368209362e-02</internalNodes>
          <leafValues>
            -4.8959228396415710e-01 8.6847943067550659e-01</leafValues></_>
        <_>
          <internalNodes>
            0 -1 27 -4.2573153041303158e-03</internalNodes>
          <leafValues>
            6.6187012195587158e-01 -6.6028273105621338e-01</leafValues></_></weakClassifiers></_>
    <!-- stage 2 -->
    <_>
      <maxWeakCount>6</maxWeakCount>
      <stageThreshold>-1.5140351057052612e+00</stageThreshold>
      <weakClassifiers>
        <_>
          <internalNodes>
            0 -1 1 2.2168412804603577e-02</internalNodes>
          <leafValues>
            -6.8518519401550293e-01 7.6984125375747681e-01</leafValues></_>
        <_>
          <internalNodes>
            0 -1 12 7.1323208510875702e-02</internalNodes>
          <leafValues>
            -4.8353222012519836e-01 7.6648104190826416e-01</leafValues></_>
        <_>
          <internalNodes>
            0 -1 3 1.2870028614997864e-02</internalNodes>
          <leafValues>
            -6.7435055971145630e-01 4.3766865134239197e-01</leafValues></_>
        <_>
          <internalNodes>
            0 -1 38 2.3801415227353573e-03</internalNodes>
          <leafValues>
            -5.7972097396850586e-01 4.6188727021217346e-01</leafValues></_>
        <_>
          <internalNodes>
            0 -1 29 3.6287228576838970e-03</internalNodes>
          <leafValues>
            -4.9132674932479858e-01 5.0761479139328003e-01</leafValues></_>
        <_>
          <internalNodes>
            0 -1 32 -1.1453046463429928e-03</internalNodes>
          <leafValues>
            2.8806138038635254e-01 -8.3355551958084106e-01</leafValues></_></weakClassifiers></_>
    <!-- stage 3 -->
    <_>
      <maxWeakCount>6</maxWeakCount>
      <stageThreshold>-1.2632689476013184e+00</stageThreshold>
      <weakClassifiers>
        <_>
          <internalNodes>
            0 -1 36 1.9388530403375626e-02</internalNodes>
          <leafValues>
            -4.5757576823234558e-01 7.9122805595397949e-01</leafValues></_>
        <_>
          <internalNodes>
            0 -1 22 5.7638674043118954e-03</internalNodes>
          <leafValues>
            -6.1814641952514648e-01 6.1449420452117920e-01</leafValues></_>
        <_>
          <internalNodes>
            0 -1 28 -1.8511129543185234e-02</internalNodes>
          <leafValues>
            4.9994847178459167e-01 -6.1251997947692871e-01</leafValues></_>
        <_>
          <internalNodes>
            0 -1 43 -2.4192724376916885e-03</internalNodes>
          <leafValues>
            5.8189046382904053e-01 -5.3050100803375244e-01</leafValues></_>
        <_>
          <internalNodes>
            0 -1 25 -2.2100780624896288e-03</internalNodes>
          <leafValues>
            4.2051202058792114e-01 -6.9439309835433960e-01</leafValues></_>
        <_>
          <internalNodes>
            0 -1 8 2.7479108422994614e-02</internalNodes>
          <leafValues>
            -7.1140497922897339e-01 3.2034599781036377e-01</leafValues></_></weakClassifiers></_>
    <!-- stage 4 -->
    <_>
      <maxWeakCount>7</maxWeakCount>
      <stageThreshold>-6.7911744117736816e-01</stageThreshold>
      <weakClassifiers>
        <_>
          <internalNodes>
            0 -1 17 -3.0812727287411690e-02</internalNodes>
          <leafValues>
            7.8966456651687622e-01 -3.8880917429924011e-01</leafValues></_>
        <_>
          <internalNodes>
            0 -1 45 -1.1144498363137245e-02</internalNodes>
          <leafValues>
            4.4068121910095215e-01 -6.2089639902114868e-01</leafValues></_>
        <_>
          <internalNodes>
            0 -1 22 1.1463410221040249e-02</internalNodes>
          <leafValues>
            -4.5747795701026917e-01 6.1703294515609741e-01</leafValues></_>
        <_>
          <internalNodes>
            0 -1 6 6.7072464153170586e-03</internalNodes>
          <leafValues>
            -4.0611198544502258e-01 6.3276010751724243e-01</leafValues></_>
        <_>
          <internalNodes>
            0 -1 21 -5.0871912389993668e-03</internalNodes>
          <leafValues>
            4.3788659572601318e-01 -5.5821728706359863e-01</leafValues></_>
        <_>
          <internalNodes>
            0 -1 33 -4.0097441524267197e-03</internalNodes>
          <leafValues>
            3.7566545605659485e-01 -5.3007668256759644e-01</leafValues></_>
        <_>
          <internalNodes>
            0 -1 7 1.5101131983101368e-02</internalNodes>
          <leafValues>
            -5.3367853164672852e-01 3.8062599301338196e-01</leafValues></_></weakClassifiers></_>
    <!-- stage 5 -->
    <_>
      <maxWeakCount>8</maxWeakCount>
      <stageThreshold>-8.8121825456619263e-01</stageThreshold>
      <weakClassifiers>
        <_>
          <internalNodes>
            0 -1 32 -1.6926187090575695e-03</internalNodes>
          <leafValues>
            5.8448755741119385e-01 -6.8539327383041382e-01</leafValues></_>
        <_>
          <internalNodes>
            0 -1 16 -5.8738261461257935e-02</internalNodes>
          <leafValues>
            7.7444487810134888e-01 -3.4232002496719360e-01</leafValues></_>
        <_>
          <internalNodes>
            0 -1 46 -7.0512499660253525e-03</internalNodes>
          <leafValues>
            3.7267315387725830e-01 -6.9392979145050049e-01</leafValues></_>
        <_>
          <internalNodes>
            0 -1 42 -2.8959079645574093e-03</internalNodes>
          <leafValues>
            3.7797999382019043e-01 -5.3451400995254517e-01</leafValues></_>
        <_>
          <internalNodes>
            0 -1 14 1.1624846607446671e-02</internalNodes>
          <leafValues>
            -4.9142372608184814e-01 4.3208190798759460e-01</leafValues></_>
        <_>
          <internalNodes>
            0 -1 5 1.5105554484762251e-04</internalNodes>
          <leafValues>
            -6.4814466238021851e-01 2.6599630713462830e-01</leafValues></_>
        <_>
          <internalNodes>
            0 -1 4 9.6884956583380699e-03</internalNodes>
          <leafValues>
            -7.6207083463668823e-01 2.3210129141807556e-01</leafValues></_>
        <_>
          <internalNodes>
            0 -1 30 -1.3511788565665483e-03</internalNodes>
          <leafValues>
            -8.2347452640533447e-01 1.9454678893089294e-01</leafValues></_></weakClassifiers></_>
    <!-- stage 6 -->
    <_>
      <maxWeakCount>10</maxWeakCount>
      <stageThreshold>-8.2158261537551880e-01</stageThreshold>
      <weakClassifiers>
        <_>
          <internalNodes>
            0 -1 23 9.3789026141166687e-03</internalNodes>
          <leafValues>
            -4.2914173007011414e-01 6.2740570306777954e-01</leafValues></_>
        <_>
          <internalNodes>
            0 -1 2 1.4326607342809439e-03</internalNodes>
          <leafValues>
            -4.2737069725990295e-01 5.0675117969512939e-01</leafValues></_>
        <_>
          <internalNodes>
            0 -1 40 1.2421868450473994e-04</internalNodes>
          <leafValues>
            -6.5719658136367798e-01 2.8286787867546082e-01</leafValues></_>
        <_>
          <internalNodes>
            0 -1 11 -5.8019004762172699e-02</internalNodes>
          <leafValues>
            4.8896366357803345e-01 -4.2735731601715088e-01</leafValues></_>
        <_>
          <internalNodes>
            0 -1 8 2.7434676885604858e-02</internalNodes>
          <leafValues>
            -6.7410129308700562e-01 2.6879569888114929e-01</leafValues></_>
        <_>
          <internalNodes>
            0 -1 9 1.9330857321619987e-03</internalNodes>
          <leafValues>
            -4.6150246262550354e-01 3.1966891884803772e-01</leafValues></_>
        <_>
          <internalNodes>
            0 -1 18 5.0795627757906914e-03</internalNodes>
          <leafValues>
            -4.8983901739120483e-01 3.5148611664772034e-01</leafValues></_>
        <_>
          <internalNodes>
            0 -1 44 -3.0319602228701115e-03</internalNodes>
          <leafValues>
            1.6596366465091705e-01 -8.4266400337219238e-01</leafValues></_>
        <_>
          <internalNodes>
            0 -1 41 -9.7946887835860252e-03</internalNodes>
          <leafValues>
            6.5754431486129761e-01 -2.3513373732566833e-01</leafValues></_>
        <_>
          <internalNodes>
            0 -1 13 -7.0328013971447945e-03</internalNodes>
          <leafValues>
            2.0361579954624176e-01 -7.9911625385284424e-01</leafValues></_></weakClassifiers></_>
    <!-- stage 7 -->
    <_>
      <maxWeakCount>12</maxWeakCount>
      <stageThreshold>-1.0559568405151367e+00</stageThreshold>
      <weakClassifiers>
        <_>
          <internalNodes>
            0 -1 23 2.0784117281436920e-02</internalNodes>
          <leafValues>
            -1.0055248439311981e-01 7.7206701040267944e-01</leafValues></_>
        <_>
          <internalNodes>
            0 -1 35 6.8629197776317596e-03</internalNodes>
          <leafValues>
            -4.8792299628257751e-01 4.0593284368515015e-01</leafValues></_>
        <_>
          <internalNodes>
            0 -1 31 -1.0773525573313236e-03</internalNodes>
          <leafValues>
            2.0062243938446045e-01 -7.6375085115432739e-01</leafValues></_>
        <_>
          <internalNodes>
            0 -1 24 1.4839317649602890e-02</internalNodes>
          <leafValues>
            -3.0273351073265076e-01 5.1767504215240479e-01</leafValues></_>
        <_>
          <internalNodes>
            0 -1 34 2.5672703050076962e-03</internalNodes>
          <leafValues>
            -4.2714673280715942e-01 3.0420324206352234e-01</leafValues></_>
        <_>
          <internalNodes>
            0 -1 20 -3.6663154605776072e-04</internalNodes>
          <leafValues>
            -7.6162070035934448e-01 2.1966893970966339e-01</leafValues></_>
        <_>
          <internalNodes>
            0 -1 39 5.0601940602064133e-03</internalNodes>
          <leafValues>
            -3.1976100802421570e-01 4.5519182085990906e-01</leafValues></_>
        <_>
          <internalNodes>
            0 -1 10 -3.7658140063285828e-03</internalNodes>
          <leafValues>
            2.8420448303222656e-01 -4.7636100649833679e-01</leafValues></_>
        <_>
          <internalNodes>
            0 -1 0 1.5931840986013412e-02</internalNodes>
          <leafValues>
            -7.3072838783264160e-01 1.7066700756549835e-01</leafValues></_>
        <_>
          <internalNodes>
            0 -1 47 3.0292964074760675e-03</internalNodes>
          <leafValues>
            -2.4919086694717407e-01 5.5497312545776367e-01</leafValues></_>
        <_>
          <internalNodes>
            0 -1 37 -3.2144978642463684e-02</internalNodes>
          <leafValues>
            6.3446396589279175e-01 -2.3299570381641388e-01</leafValues></_>
        <_>
          <internalNodes>
            0 -1 26 -3.2170035410672426e-04</internalNodes>
          <leafValues>
            -6.8736624717712402e-01 2.2311931848526001e-01</leafValues></_></weakClassifiers></_></stages>
  <features>
    <_>
      <rects>
        <_>
          0 9 12 2 -1.</_>
        <_>
          6 9 6 2 2.</_></rects>
      <tilted>0</tilted></_>
    <_>
      <rects>
        <_>
          1 5 18 1 -1.</_>
        <_>
          7 5 6 1 3.</_></rects>
      <tilted>0</tilted></_>
    <_>
      <rects>
        <_>
          1 9 2 4 -1.</_>
        <_>
          2 9 1 4 2.</_></rects>
      <tilted>0</tilted></_>
    <_>
      <rects>
        <_>
          1 9 10 2 -1.</_>
        <_>
          6 9 5 2 2.</_></rects>
      <tilted>0</tilted></_>
    <_>
      <rects>
        <_>
          1 9 10 3 -1.</_>
        <_>
          6 9 5 3 2.</_></rects>
      <tilted>0</tilted></_>
    <_>
      <rects>
        <_>
          2 7 2 3 -1.</_>
        <_>
          3 7 1 3 2.</_></rects>
      <tilted>0</tilted></_>
    <_>
      <rects>
        <_>
          2 7 4 2 -1.</_>
        <_>
          4 7 2 2 2.</_></rects>
      <tilted>0</tilted></_>
    <_>
      <rects>
        <_>
          3 4 8 2 -1.</_>
        <_>
          7 4 4 2 2.</_></rects>
      <tilted>0</tilted></_>
    <_>
      <rects>
        <_>
          3 4 15 3 -1.</_>
        <_>
          8 4 5 3 3.</_></rects>
      <tilted>0</tilted></_>
    <_>
      <rects>
        <_>
          3 6 2 3 -1.</_>
        <_>
          4 6 1 3 2.</_></rects>
      <tilted>0</tilted></_>
    <_>
      <rects>
        <_>
          4 4 6 6 -1.</_>
        <_>
          4 4 3 3 2.</_>
        <_>
          7 7 3 3 2.</_></rects>
      <tilted>0</tilted></_>
    <_>
      <rects>
        <_>
          6 9 7 6 -1.</_>
        <_>
          6 12 7 3 2.</_></rects>
      <tilted>0</tilted></_>
    <_>
      <rects>
        <_>
          7 6 7 9 -1.</_>
        <_>
          7 9 7 3 3.</_></rects>
      <tilted>0</tilted></_>
    <_>
      <rects>
        <_>
          7 10 7 6 -1.</_>
        <_>
          7 12 7 2 3.</_></rects>
      <tilted>0</tilted></_>
    <_>
      <rects>
        <_>
          8 4 3 3 -1.</_>
        <_>
          8 5 3 1 3.</_></rects>
      <tilted>0</tilted></_>
    <_>
      <rects>
        <_>
          8 4 4 3 -1.</_>
        <_>
          8 5 4 1 3.</_></rects>
      <tilted>0</tilted></_>
    <_>
      <rects>
        <_>
          8 5 4 6 -1.</_>
        <_>
          8 7 4 2 3.</_></rects>
      <tilted>0</tilted></_>
    <_>
      <rects>
        <_>
          8 5 5 6 -1.</_>
        <_>
          8 7 5 2 3.</_></rects>
      <tilted>0</tilted></_>
    <_>
      <rects>
        <_>
          8 8 5 2 -1.</_>
        <_>
          8 9 5 1 2.</_></rects>
      <tilted>0</tilted></_>
    <_>
      <rects>
        <_>
          8 9 5 6 -1.</_>
        <_>
          8 12 5 3 2.</_></rects>
      <tilted>0</tilted></_>
    <_>
      <rects>
        <_>
          8 10 3 1 -1.</_>
        <_>
          9 10 1 1 3.</_></rects>
      <tilted>0</tilted></_>
    <_>
      <rects>
        <_>
          8 10 2 2 -1.</_>
        <_>
          8 11 2 1 2.</_></rects>
      <tilted>0</tilted></_>
    <_>
      <rects>
        <_>
          9 4 2 3 -1.</_>
        <_>
          9 5 2 1 3.</_></rects>
      <tilted>0</tilted></_>
    <_>
      <rects>
        <_>
          9 4 3 3 -1.</_>
        <_>
          9 5 3 1 3.</_></rects>
      <tilted>0</tilted></_>
    <_>
      <rects>
        <_>
          9 7 8 2 -1.</_>
        <_>
          13 7 4 2 2.</_></rects>
      <tilted>0</tilted></_>
    <_>
      <rects>
        <_>
          9 10 1 2 -1.</_>
        <_>
          9 11 1 1 2.</_></rects>
      <tilted>0</tilted></_>
    <_>
      <rects>
        <_>
          9 10 3 1 -1.</_>
        <_>
          10 10 1 1 3.</_></rects>
      <tilted>0</tilted></_>
    <_>
      <rects>
        <_>
          9 10 2 2 -1.</_>
        <_>
          9 11 2 1 2.</_></rects>
      <tilted>0</tilted></_>
    <_>
      <rects>
        <_>
          9 10 5 4 -1.</_>
        <_>
          9 12 5 2 2.</_></rects>
      <tilted>0</tilted></_>
    <_>
      <rects>
        <_>
          10 4 1 3 -1.</_>
        <_>
          10 5 1 1 3.</_></rects>
      <tilted>0</tilted></_>
    <_>
      <rects>
        <_>
          10 9 3 3 -1.</_>
        <_>
          11 9 1 3 3.</_></rects>
      <tilted>0</tilted></_>
    <_>
      <rects>
        <_>
          10 9 10 3 -1.</_>
        <_>
          15 9 5 3 2.</_></rects>
      <tilted>0</tilted></_>
    <_>
      <rects>
        <_>
          10 10 1 2 -1.</_>
        <_>
          10 11 1 1 2.</_></rects>
      <tilted>0</tilted></_>
    <_>
      <rects>
        <_>
          12 9 6 3 -1.</_>
        <_>
          14 9 2 3 3.</_></rects>
      <tilted>0</tilted></_>
    <_>
      <rects>
        <_>
          12 13 6 1 -1.</_>
        <_>
          15 13 3 1 2.</_></rects>
      <tilted>0</tilted></_>
    <_>
      <rects>
        <_>
          14 4 4 8 -1.</_>
        <_>
          14 4 2 4 2.</_>
        <_>
          16 8 2 4 2.</_></rects>
      <tilted>0</tilted></_>
    <_>
      <rects>
        <_>
          14 8 6 5 -1.</_>
        <_>
          16 8 2 5 3.</_></rects>
      <tilted>0</tilted></_>
    <_>
      <rects>
        <_>
          15 0 4 14 -1.</_>
        <_>
          15 0 2 7 2.</_>
        <_>
          17 7 2 7 2.</_></rects>
      <tilted>0</tilted></_>
    <_>
      <rects>
        <_>
          15 4 2 8 -1.</_>
        <_>
          15 4 1 4 2.</_>
        <_>
          16 8 1 4 2.</_></rects>
      <tilted>0</tilted></_>
    <_>
      <rects>
        <_>
          15 7 3 2 -1.</_>
        <_>
          16 7 1 2 3.</_></rects>
      <tilted>0</tilted></_>
    <_>
      <rects>
        <_>
          15 9 2 3 -1.</_>
        <_>
          16 9 1 3 2.</_></rects>
      <tilted>0</tilted></_>
    <_>
      <rects>
        <_>
          15 13 2 4 -1.</_>
        <_>
          15 15 2 2 2.</_></rects>
      <tilted>0</tilted></_>
    <_>
      <rects>
        <_>
          16 6 2 3 -1.</_>
        <_>
          17 6 1 3 2.</_></rects>
      <tilted>0</tilted></_>
    <_>
      <rects>
        <_>
          16 7 2 2 -1.</_>
        <_>
          17 7 1 2 2.</_></rects>
      <tilted>0</tilted></_>
    <_>
      <rects>
        <_>
          16 8 4 3 -1.</_>
        <_>
          18 8 2 3 2.</_></rects>
      <tilted>0</tilted></_>
    <_>
      <rects>
        <_>
          16 8 4 4 -1.</_>
        <_>
          18 8 2 4 2.</_></rects>
      <tilted>0</tilted></_>
    <_>
      <rects>
        <_>
          16 9 4 3 -1.</_>
        <_>
          18 9 2 3 2.</_></rects>
      <tilted>0</tilted></_>
    <_>
      <rects>
        <_>
          16 10 2 3 -1.</_>
        <_>
          17 10 1 3 2.</_></rects>
      <tilted>0</tilted></_></features></cascade>
</opencv_storage>
